-64 
-48 
-34 
-1 
-41 
-6 
-26 
-27 
-2 
45 
-15 
-64 
-17 
2 
27 
74 
47 
1 
88 
52 
15 
-39 
-57 
-43 
3 
-29 
-82 
-71 
-19 
-128 
-63 
-39 
117 
127 
59 
31 
21 
-71 
-55 
-26 
-88 
-24 
-15 
70 
-40 
-88 
-25 
-82 
-64 
-48 
-34 
-1 
-41 
-6 
-26 
-27 
-2 
45 
-15 
-64 
-17 
2 
27 
74 
47 
1 
88 
52 
15 
-39 
-57 
-43 
3 
-29 
-82 
-71 
-19 
-128 
-63 
-39 
117 
127 
59 
31 
21 
-71 
-55 
-26 
-88 
-24 
-15 
70 
-40 
-88 
-25 
-82 
-64 
-48 
-34 
-1 
-41 
-6 
-26 
-27 
-2 
45 
-15 
-64 
-17 
2 
27 
74 
47 
1 
88 
52 
15 
-39 
-57 
-43 
3 
-29 
-82 
-71 
-19 
-128 
-63 
-39 
117 
127 
59 
31 
21 
-71 
-55 
-26 
-88 
-24 
-15 
70 
-40 
-88 
-25 
-82 
-64 
-48 
-34 
-1 
-41 
-6 
-26 
-27 
-2 
45 
-15 
-64 
-17 
2 
27 
74 
47 
1 
88 
52 
15 
-39 
-57 
-43 
3 
-29 
-82 
-71 
-19 
-128 
-63 
-39 
117 
127 
59 
31 
21 
-71 
-55 
-26 
-88 
-24 
-15 
70 
-40 
-88 
-25 
-82 
-64 
-48 
-34 
-1 
-41 
-6 
-26 
-27 
-2 
45 
-15 
-64 
-17 
2 
27 
74 
47 
1 
88 
52 
15 
-39 
-57 
-43 
3 
-29 
-82 
-71 
-19 
-128 
-63 
-39 
117 
127 
59 
31 
21 
-71 
-55 
-26 
-88 
-24 
-15 
70 
-40 
-88 
-25 
-82 
-64 
-48 
-34 
-1 
-41 
-6 
-26 
-27 
-2 
45 
-15 
-64 
-17 
2 
27 
74 
47 
1 
88 
52 
15 
-39 
-57 
-43 
3 
-29 
-82 
-71 
-19 
-128 
-63 
-39 
117 
127 
59 
31 
21 
-71 
-55 
-26 
-88 
-24 
-15 
70 
-40 
-88 
-25 
-82 
-64 
-48 
-34 
-1 
-41 
-6 
-26 
-27 
-2 
45 
-15 
-64 
-17 
2 
27 
74 
47 
1 
88 
52 
15 
-39 
-57 
-43 
3 
-29 
-82 
-71 
-19 
-128 
-63 
-39 
117 
127 
59 
31 
21 
-71 
-55 
-26 
-88 
-24 
-15 
70 
-40 
-88 
-25 
-82 
-64 
-48 
-34 
-1 
-41 
-6 
-26 
-27 
-2 
45 
-15 
-64 
-17 
2 
27 
74 
47 
1 
88 
52 
15 
-39 
-57 
-43 
3 
-29 
-82 
-71 
-19 
-128 
-63 
-39 
117 
127 
59 
31 
21 
-71 
-55 
-26 
-88 
-24 
-15 
70 
-40 
-88 
-25 
-82 
-64 
-48 
-34 
-1 
-41 
-6 
-26 
-27 
-2 
45 
-15 
-64 
-17 
2 
27 
74 
47 
1 
88 
52 
15 
-39 
-57 
-43 
3 
-29 
-82 
-71 
-19 
-128 
-63 
-39 
117 
127 
59 
31 
21 
-71 
-55 
-26 
-88 
-24 
-15 
70 
-40 
-88 
-25 
-82 
-64 
-48 
-34 
-1 
-41 
-6 
-26 
-27 
-2 
45 
-15 
-64 
-17 
2 
27 
74 
47 
1 
88 
52 
15 
-39 
-57 
-43 
3 
-29 
-82 
-71 
-19 
-128 
-63 
-39 
117 
127 
59 
31 
21 
-71 
-55 
-26 
-88 
-24 
-15 
70 
-40 
-88 
-25 
-82 
-64 
-48 
-34 
-1 
-41 
-6 
-26 
-27 
-2 
45 
-15 
-64 
-17 
2 
27 
74 
47 
1 
88 
52 
15 
-39 
-57 
-43 
3 
-29 
-82 
-71 
-19 
-128 
-63 
-39 
117 
127 
59 
31 
21 
-71 
-55 
-26 
-88 
-24 
-15 
70 
-40 
-88 
-25 
-82 
-64 
-48 
-34 
-1 
-41 
-6 
-26 
-27 
-2 
45 
-15 
-64 
-17 
2 
27 
74 
47 
1 
88 
52 
15 
-39 
-57 
-43 
3 
-29 
-82 
-71 
-19 
-128 
-63 
-39 
117 
127 
59 
31 
21 
-71 
-55 
-26 
-88 
-24 
-15 
70 
-40 
-88 
-25 
-82 
-64 
-48 
-34 
-1 
-41 
-6 
-26 
-27 
-2 
45 
-15 
-64 
-17 
2 
27 
74 
47 
1 
88 
52 
15 
-39 
-57 
-43 
3 
-29 
-82 
-71 
-19 
-128 
-63 
-39 
117 
127 
59 
31 
21 
-71 
-55 
-26 
-88 
-24 
-15 
70 
-40 
-88 
-25 
-82 
-64 
-48 
-34 
-1 
-41 
-6 
-26 
-27 
-2 
45 
-15 
-64 
-17 
2 
27 
74 
47 
1 
88 
52 
15 
-39 
-57 
-43 
3 
-29 
-82 
-71 
-19 
-128 
-63 
-39 
117 
127 
59 
31 
21 
-71 
-55 
-26 
-88 
-24 
-15 
70 
-40 
-88 
-25 
-82 
-64 
-48 
-34 
-1 
-41 
-6 
-26 
-27 
-2 
45 
-15 
-64 
-17 
2 
27 
74 
47 
1 
88 
52 
15 
-39 
-57 
-43 
3 
-29 
-82 
-71 
-19 
-128 
-63 
-39 
117 
127 
59 
31 
21 
-71 
-55 
-26 
-88 
-24 
-15 
70 
-40 
-88 
-25 
-82 
-64 
-48 
-34 
-1 
-41 
-6 
-26 
-27 
-2 
45 
-15 
-64 
-17 
2 
27 
74 
47 
1 
88 
52 
15 
-39 
-57 
-43 
3 
-29 
-82 
-71 
-19 
-128 
-63 
-39 
117 
127 
59 
31 
21 
-71 
-55 
-26 
-88 
-24 
-15 
70 
-40 
-88 
-25 
-82 
